-1.6245179639364502 -1.06164353953657 -3.0155641185383897 1.7770263121578236 -1.7140197015146479 -1.1238947001918511 1.526913159599814 1.9400632842415384 -1.3334612978756417 1.8244358574364905 -1.2240734953907872 0.5847714964692884 -2.697569096660505 -1.764724218863705 -0.03823789895927787 1.481507414967206 0.671010220457001 -1.4224592737981765 1.2813214831619675 -0.4876965993693385 
0.8346267082945283 -1.8632647347168039 0.7301843953048173 -0.9909352079715064 1.0038150772467547 3.4465819949455305 1.9224869226134143 2.4482319592732975 -0.5555013552816114 0.48578146853775195 -2.1446000204542637 -1.4735240635725302 0.635235945610468 -0.04609787617564203 0.9538408370946169 -1.1346622953893797 -2.998705105600902 -1.6652499975368045 0.3251759521639575 2.2436106253847736 
-1.1687336829771562 0.40097215814189996 -2.266228539406792 -0.7928985245980241 -1.2159482417429062 
1.074397390562656 1.22948478774409 0.13385563595174307 -3.2229782973351684 -2.5658023694530607 
-1.6315580281477833 2.0825131954703284 -1.3741009515845286 -0.4356891136789441 -3.213393907537503 
0.5444200696897401 -1.2732739665473802 1.1418529912418227 -0.6836905244485074 0.25057716296656696 
-1.3167134589646647 -0.20698861313327224 -2.030727477745721 -0.6335386107191197 -1.1162078814175003 
-0.9047305910661205 -2.198809293815862 -2.7066567233965384 0.5907915367842758 1.751331564102114 
-1.1553088677318346 -1.092440735246801 0.47631026160681356 2.284994653095792 0.5154534214984272 
-0.7629409297297155 -1.4857531461916682 0.6399605859767332 2.7363108524191344 -1.2591386207028252 
0.5518516891769911 1.254437884407508 -0.9251973888896531 -0.13454178773501546 -0.4944963824669784 
-1.250127330992615 0.036229158148166435 -1.0021614261306377 1.3391868095453454 1.4423416357671588 
1.095387286976065 1.813563165379413 -0.6542993717654698 -3.3209291831213505 -2.094828909777599 
-0.7529985920351531 0.3053429595014682 1.2822833057271423 -1.077350805544972 0.08574142655117428 
-1.1528629866717752 1.1158423030959772 0.41938573127567674 0.377546985985304 -2.9005391711109665 
-1.3556504217763932 1.3673571919621648 -1.6251603919190905 -0.47419992039068387 -2.0533884065281223 
0.32225541118903384 0.322382176101813 -0.5092162754403362 -0.24255922614976064 0.687893683340712 
-1.5939282068076632 0.8993111673205901 1.875724755124568 0.8710026523144656 0.37645703195440444 
0.7629142038869996 1.2388728181685253 1.1132336444965565 -1.1162879978523403 -2.997298558743732 
-0.58963155065763 1.1831516643734912 -0.469081625757331 -3.077319210503751 -1.667873396087501 
0.5902985242983316 -0.35347578372134536 0.6689160977435793 0.5058091453252319 0.9790530034345062 
0.4005729380351351 0.3490409436981867 -2.3650775972428124 0.49744629894578124 1.3215606221100833 
1.2403723279841585 0.6630444452486157 -0.006870887884942307 
-6.636167600040184 -3.4665712900875683 -2.9616303746226733 
-2.4696790386652676 0.5964069941000244 2.930574398201557 
0.11129232909871434 4.902205546525315 4.184039762876842 
3.308422743650596 2.9219382061456023 -7.313663767587393 

Network configuration: 2-20-5-3