-1.213241311934291 -2.1793008121713995 -0.062554064003057 0.8410542728049666 1.3309486605611953 -2.0791235742819816 -0.36304350297696153 -1.5188838373979396 -0.9940087284021466 -0.9437926186073888 1.2131535038632488 -1.6829879489596682 1.869432268753812 -1.7417844977921633 -0.7042939282461574 1.7438378981155056 -0.8213579728669331 -1.518301952012321 1.1026261091905194 0.08221351901616993 
-0.8448647961375401 0.8747737862373713 1.4823879789137726 1.8304165569122786 2.068074052207972 0.06717389168260324 -1.381593500227726 -1.263314851320882 3.2427625529508846 0.46096712591317207 0.42082185454396576 -0.289044786411384 0.598705727352174 -0.6255592103856566 -1.5484350667632227 2.2156212708454643 -1.2249213152094418 -1.3021545341951137 1.0691795193788662 -2.033631962927198 
1.9043791220236632 0.9604648947340276 2.0183552866974375 0.32810905111601596 -1.689974402302679 
1.9044123291057313 -0.23562840048372946 -0.41820720359373115 -1.277420097905894 -0.3772892245892581 
-0.27903744726232893 -0.5784682200631902 0.17567570357771128 1.275535866266677 0.6090206567126281 
-1.4918356534282262 -1.4800959712054191 -0.6181980418762975 -0.22308347173453424 1.88416247546242 
0.5686731586511626 -1.7860260938808903 -0.7570404601648401 -1.1494576256491909 0.8563693734661697 
1.4095899467604054 1.839850995726022 1.2968260385208865 -0.1562594344380235 -0.29342655685216973 
1.6035334095621263 0.37059299294539244 1.1827865685771075 0.6010974436071372 -1.8038491499128941 
2.255447884847954 2.4074041846505163 0.6955125390715685 0.893410257665913 -0.17529457088806955 
-1.2405292405926744 -0.5646025879303583 -2.0116885362864427 0.1696549815289179 -0.5013599831512767 
0.49747669698977554 -0.44130168924089186 0.3938646099629298 -1.3994113601034743 0.5967453604808188 
-1.2948383636875476 -0.7171326694935397 -0.21256155509675698 1.5692894404194329 -0.7672028253991997 
0.4691678159795001 1.732662917410068 2.3419495989251113 0.23424653836961706 -0.6887618877132248 
-0.10974332100761316 -1.581872450649715 0.26788343015537736 1.85017508835248 1.0370121631749674 
1.9791239611183895 2.5225829390653116 2.4332000675812164 -0.7183206369645575 -1.973826094648703 
2.662159216174106 1.1732747112409911 2.0914556439365546 -0.4322060092749722 -2.3875941915121053 
-0.8273546081982656 -1.0167735691430235 0.5228553956547104 -1.27219151013727 1.8940447420003137 
2.9961782933826195 0.4880432613958225 1.9031551811091252 1.0533701817569563 -1.229660809179129 
1.6364812280433068 2.5056474212974114 1.4560059747608318 1.2322782467582234 -1.6564903390992165 
-0.7131650107338473 -1.5663680969664642 -1.436118943726442 1.689353752132415 1.7045581868855495 
1.9676406430385402 1.5687000107200832 1.1445666297317982 -0.4531130355453642 0.28184498485226167 
-4.911157270396922 -1.583592614449582 3.7592752940097127 
-2.660064733743165 -1.816328213284993 -6.142874458782135 
-3.343763952792227 -0.8650000748089316 2.9916559675903076 
1.5972231951020188 0.530804709669952 -4.31284152947292 
2.468572078414011 5.601299179066534 0.8281859238747955 

Network configuration: 2-20-5-3